//Numpy array shape [1, 1, 25, 25]
//Min -0.345751166344
//Max 0.346032083035
//Number of zeros 0

#ifndef W12_H_
#define W12_H_

#ifndef __SYNTHESIS__
conv2d_2_weight_t w12[625];
#else
conv2d_2_weight_t w12[625] = {0.1228262782, -0.2450230718, 0.1989751458, 0.3301557302, -0.1331520975, -0.1758065969, -0.3172698617, 0.2980918288, -0.1572343707, -0.0732174814, 0.1553018093, -0.3222506642, -0.1836527139, -0.2570915520, -0.1482708007, -0.1547915041, 0.3242340088, 0.2933471799, -0.0525815785, -0.2906740308, -0.0522631705, 0.0205033720, -0.0593590438, -0.2170689553, 0.2486664653, 0.1842881441, -0.3089135289, -0.2901430726, 0.3339740634, 0.2641878128, 0.3149771690, -0.0290464461, -0.1349171400, -0.1656206995, 0.0500641167, 0.0680546761, 0.1265020669, 0.2023250461, 0.1843545437, -0.2960813344, 0.2812987566, -0.2554776371, -0.1292596012, -0.2504116297, 0.2178376913, 0.1701700091, 0.0486226678, -0.0935758352, 0.2918911576, 0.1534550190, -0.1254306138, -0.1175907850, 0.2565870881, 0.3021314144, 0.3303816915, 0.3432702422, -0.1707931012, -0.1177552193, -0.2421820462, -0.0386107862, -0.1074247956, 0.0676989555, 0.3362612724, -0.0456250310, 0.0605303347, -0.0279129744, -0.1249076575, 0.0147851110, -0.2010746151, 0.0232203603, -0.0341750979, -0.2265070826, 0.1995918751, 0.2968894243, -0.1646027714, 0.2827172875, 0.2566893101, 0.1027231514, 0.2079149485, 0.2415459156, -0.0149042904, -0.1663297415, -0.3243715167, 0.1584231853, -0.2743869424, -0.0230818391, -0.0051355660, 0.1671955585, 0.0187129676, -0.2903620899, -0.2754852176, -0.0801565945, -0.0731129348, -0.0002620518, -0.2672635615, 0.1600171924, -0.0926753581, 0.1073888540, -0.2554338574, -0.1822897941, 0.0817495286, 0.3096774817, -0.1652906686, 0.1166950762, -0.0802826285, -0.3060628176, 0.0838576257, 0.1356557608, -0.2387024909, -0.2021820843, -0.0902264416, -0.1964316219, 0.3371911645, 0.0831942856, -0.1783633530, 0.0793448985, -0.1113691479, 0.2256705165, -0.0129297376, 0.0702268779, 0.0644343793, 0.0758618712, -0.2962612212, 0.0441490710, -0.3072724342, 0.1739073396, -0.0847606063, -0.2257968038, -0.2218365818, 0.0063807070, -0.0987691283, -0.1820005625, 0.0934715867, 0.1818997264, -0.1960848272, -0.1731469333, 0.3157880306, 0.1783052087, -0.2610175014, 0.2374058962, -0.3219835758, -0.2564977109, 0.3183284402, -0.0686427951, 0.1287803352, 0.2741394639, 0.0215806067, -0.0712421834, 0.1893261075, -0.3447016180, -0.1706119031, 0.1260678172, 0.0167030394, 0.2592960596, 0.2810301185, 0.2776337862, 0.1564578414, 0.0255633593, 0.0382678807, -0.1679033339, 0.0081577301, -0.2982628047, -0.1680197865, 0.3442053795, 0.0877824426, 0.2027218938, 0.1126974523, 0.2668426037, 0.0998859107, -0.1148841232, 0.0195481181, 0.1300752759, -0.2220680714, -0.2156237811, -0.2034357190, -0.2067459524, -0.0060026944, 0.0146244168, 0.1804160476, 0.0250821114, -0.1475300491, 0.2863239050, -0.0642869771, -0.2441834509, 0.1985782385, 0.2871267200, -0.3031765223, 0.0246895552, -0.1810596138, 0.3142678738, 0.1277918816, -0.2636147141, -0.3212201893, 0.1595298648, -0.0468163192, -0.1763170063, -0.0193309188, -0.1388758719, -0.1759142131, -0.2436614037, 0.3093500733, 0.0002081394, -0.2765473127, -0.2659590542, 0.2241601944, -0.1339584291, -0.1534982175, 0.0851378739, -0.3283396661, -0.2016828954, 0.0491420925, 0.2888497710, 0.1183802783, 0.1357927620, 0.0982455909, -0.3026034236, 0.1033368111, 0.1472332180, -0.3159520626, -0.2067300081, -0.0653211772, 0.3157055974, -0.1186999828, 0.3260924220, 0.0748158693, -0.0108622313, 0.3248521090, 0.3312835097, -0.2206926942, -0.0521371365, 0.2104383111, 0.0666085184, -0.1504289806, -0.0731388628, 0.2046030760, -0.2024672627, -0.3223493695, 0.2368152738, 0.1206027865, 0.3460320830, -0.0291409492, 0.0749765038, 0.2638220787, 0.2448029518, -0.3006735444, -0.1150225550, 0.1219227612, -0.0911753476, 0.0014341176, 0.3351277709, 0.1762336493, 0.1454483569, -0.2531149685, -0.2340526432, -0.0102602243, -0.3150709867, -0.0776230395, 0.0027807355, 0.1266626120, 0.1791402698, 0.0188234746, -0.2143076211, 0.2118984461, 0.1952876449, 0.2143906951, 0.0194401741, 0.1179132164, -0.1509221345, -0.3215371668, 0.2595534921, -0.0457746983, -0.2477645874, 0.1301652789, 0.2147785425, -0.1399290711, 0.1151463389, -0.1986173093, -0.1544702202, -0.0760282278, -0.3253178298, 0.1694669724, -0.2970506251, -0.2225899696, 0.1380959749, 0.1882630587, -0.1016916782, -0.0245489776, 0.1724418402, -0.2269378752, -0.1556868702, -0.0411270857, -0.3379327357, 0.1391423941, 0.1883681417, 0.1497664452, 0.1846603155, 0.3010767698, 0.2459061146, -0.1556695253, -0.1822501570, 0.0968598723, 0.2682526112, 0.0026203394, -0.0087790489, 0.2998832464, -0.0323561132, 0.3433960080, 0.1706959605, 0.0992893577, 0.2159319520, -0.2580647171, -0.2167194337, 0.1903397441, -0.2102313638, -0.1875965744, 0.2715609074, 0.2190337777, 0.0161819756, 0.3157178164, -0.0126594901, 0.0047690272, -0.1017100960, 0.2591761351, -0.1442892700, 0.3135120273, 0.0215713382, 0.2512184381, -0.0898196101, 0.1446439922, 0.1711919904, 0.1251981258, -0.1306504309, -0.1202791035, 0.0799147785, 0.0092930198, 0.2613405585, -0.1845417917, 0.2219091058, 0.2077316642, 0.0985441506, 0.2251657844, 0.3310305476, 0.2495259047, -0.0068255365, 0.2241907716, -0.0991976857, -0.2960849702, -0.1639712751, -0.0669167340, -0.0987052023, 0.0700707138, -0.0030722916, -0.0032685101, -0.1988632530, -0.2466835529, 0.1917490959, -0.1450512558, 0.0021286011, 0.1368054152, -0.0499588251, 0.1967128515, -0.1968435794, 0.0987347662, 0.0525775254, -0.0027641356, -0.1428882927, -0.0242637098, 0.2971667647, -0.2872760296, 0.3194562793, -0.1514780521, 0.3047326803, -0.1953515857, -0.3183850944, 0.1245162487, 0.0427570939, 0.1027081311, 0.2099219561, -0.1007390767, 0.2063193917, 0.1377240717, 0.1523289680, -0.1110536605, -0.2768535018, 0.2345543504, -0.2758461237, -0.1463639587, 0.2064519525, -0.0278533697, 0.2485503554, -0.3434095681, 0.0634120703, -0.3293695748, -0.3004083335, -0.0250194967, 0.2295389175, -0.3191806972, 0.1744435430, -0.1240389645, -0.0185216069, -0.1596787125, -0.2051799595, 0.2408950925, 0.0667897165, -0.0049490631, -0.0687817037, 0.2879261971, -0.1847730428, 0.0707638860, -0.2689445317, 0.2690236568, -0.0955257118, 0.2262634635, -0.2761637866, 0.1449744403, 0.1077107191, -0.1272291988, 0.1377144754, -0.3130658567, 0.2993460298, -0.2892944515, 0.1616483927, 0.1966840029, 0.0236736834, -0.1932656765, -0.2725357413, -0.3227301836, 0.0410882533, -0.0502986908, -0.3121686578, 0.1721726656, 0.2812094688, 0.1005980074, 0.3296679854, 0.2295093536, -0.3457511663, -0.3085160851, -0.2725535631, -0.0405414104, -0.2788491249, -0.1627021134, 0.0904383659, -0.0413834453, 0.2420967221, 0.1384731531, -0.2647789121, -0.1422831565, -0.2112359107, 0.3048118353, -0.0764013529, -0.0455574095, 0.0992889404, 0.3384928703, -0.0263692141, -0.3188813031, 0.1998668313, -0.2989844680, -0.2305411398, 0.0690820813, -0.1817137301, -0.0266474485, -0.1520685703, -0.2668899298, -0.1975119114, 0.0079740286, 0.2304035425, -0.0781761408, -0.3065745533, 0.0005733371, 0.1141691506, -0.3175732195, 0.0935603082, 0.2505283952, -0.2103065997, -0.2116640657, -0.1373198628, -0.0905255079, -0.3121169508, -0.2931032777, 0.2861349583, -0.2403718978, -0.1917815208, 0.3227663636, -0.1656989157, 0.2180847526, -0.1677962244, 0.1284569800, -0.1222638488, 0.1303782165, -0.0069846809, -0.2488555312, -0.2883264124, -0.2391549349, -0.3411205709, -0.1965782195, -0.3196975291, -0.1216066778, -0.0817665160, 0.1312123835, -0.1788166910, 0.1329358816, 0.1131379902, 0.2190891504, -0.0750074685, 0.1788569093, -0.2952735126, -0.3036519885, -0.0981317759, 0.2644208670, -0.0474142134, 0.2907245159, 0.3050858378, -0.1823633909, -0.0974209160, -0.2529865503, -0.1534352005, -0.3173707128, 0.3329715729, 0.0896041393, -0.0245783925, -0.2535603046, 0.3354064226, -0.2660575807, -0.0363030434, -0.2002016306, 0.1332896948, -0.3369375765, 0.1903072000, -0.1849157661, -0.2198956162, 0.1924698353, -0.3237932026, -0.2986128926, 0.1234864295, 0.1470392048, -0.0260011852, -0.1849978566, 0.0984824598, -0.1890034229, 0.2471193671, -0.2742851675, 0.2729901671, 0.3198822141, 0.2689926028, 0.2561395168, 0.1595867872, 0.1294527948, 0.2794243693, -0.3427344561, -0.0480594933, -0.2144275457, 0.2904466987, 0.2042315602, -0.3123191595, -0.0003818274, 0.0104938745, 0.1546296477, -0.1617316753, 0.1653953195, 0.2987527251, -0.2253275216, 0.1512893140, 0.1688180566, 0.2052989006, 0.0519927740, 0.2093845010, -0.2476124465, -0.1635780632, -0.1788541973, 0.3372674584, 0.3167064190, 0.1606960893, -0.3038147986, -0.2592186630, -0.1703618914, 0.2733008862, 0.2159326673, -0.3039445281, 0.1301656067, 0.0898492634, -0.1767363995, -0.2167238891, -0.0209556222, -0.0318363607, -0.1995798945, -0.2221553028, -0.0803585947, 0.1743287444, 0.3269557953, 0.2638728023, 0.2910453081, -0.1566055268, -0.3422091901, 0.2148869038, -0.3400209546, 0.1938173771, 0.3316224813, 0.2593590617, -0.3451019228, 0.3115675449, -0.3293717206, -0.1264887750, -0.1581958830, 0.2448427677, -0.2985231280, 0.2977255583, -0.1043568850, 0.0913855135, -0.2660034895, 0.0543765128, -0.0169391632, -0.1699236631, -0.0117780864, 0.3223268986, -0.2384837866, -0.0182121396, 0.2990742326, -0.1756348908, 0.1896547079, 0.2851500511, -0.0841667652, 0.1246284246, -0.0776196420, 0.0883941054, -0.2770297527};
#endif

#endif
